/*!
 * The following copyright notice may not be removed under any circumstances.
 * 
 * Copyright:
 * Copyright © 2012 by Matthew Welch. All Rights Reserved.
 * 
 * Trademark:
 * Libby™ Trademark of Matthew Welch
 */
Cufon.registerFont({"w":740,"face":{"font-family":"Libby Heavy","font-weight":900,"font-stretch":"normal","units-per-em":"1024","panose-1":"0 0 0 0 0 0 0 0 0 0","ascent":"819","descent":"-205","bbox":"40 -1108 1156 200","underline-thickness":"0","underline-position":"0","unicode-range":"U+0020-U+005C"},"glyphs":{" ":{"w":512},"!":{"d":"100,-360r0,-664r200,0r0,664r-200,0xm320,-120v0,62,-58,120,-120,120v-62,0,-120,-58,-120,-120v0,-62,58,-120,120,-120v62,0,120,58,120,120","w":400},"$":{"d":"394,-824v-29,-1,-66,30,-66,62v0,17,19,45,58,84v39,39,97,91,174,158v77,67,116,146,115,237v-1,91,-28,165,-88,210v-34,26,-76,40,-117,53r0,104r-200,0r0,-104v-39,-13,-74,-28,-102,-50v-55,-44,-89,-89,-108,-126r152,-116v36,42,91,112,160,112v56,0,105,-25,104,-82v0,-28,-35,-73,-106,-134v-71,-61,-128,-119,-174,-170v-88,-97,-97,-302,16,-376r58,-38r0,-108r200,0r-2,88v56,13,108,43,156,88r-136,152v-35,-29,-47,-42,-94,-44"},"+":{"d":"60,-368r0,-200r210,0r0,-208r200,0r0,208r210,0r0,200r-210,0r0,212r-200,0r0,-212r-210,0"},",":{"d":"200,-240v65,0,126,59,120,128v-12,147,-70,220,-204,312v56,-69,84,-136,84,-200v-62,2,-120,-58,-120,-120v0,-62,58,-120,120,-120","w":400},"-":{"d":"60,-368r0,-200r620,0r0,200r-620,0"},".":{"d":"320,-120v0,62,-58,120,-120,120v-62,0,-120,-58,-120,-120v0,-62,58,-120,120,-120v62,0,120,58,120,120","w":400},"\/":{"d":"40,0r444,-1024r216,0r-444,1024r-216,0"},"0":{"d":"660,-290v5,153,-137,290,-290,290v-153,0,-290,-137,-290,-290r0,-444v-5,-153,137,-290,290,-290v153,0,290,137,290,290r0,444xm280,-290v-1,49,41,90,90,90v49,0,94,-41,94,-90r0,-444v2,-49,-45,-90,-94,-90v-49,0,-90,41,-90,90r0,444"},"1":{"d":"100,-684r340,-340r32,0r0,1024r-200,0r0,-576r-32,32"},"2":{"d":"370,-1024v186,0,376,201,278,388r-228,436r220,0r0,200r-540,0r0,-32r348,-624v47,-64,7,-168,-78,-168v-28,0,-51,9,-70,28r-140,-140v59,-59,129,-88,210,-88"},"3":{"d":"688,-316v0,166,-151,316,-318,316v-167,0,-323,-150,-318,-316r200,0v-2,61,58,116,118,116v60,0,118,-55,118,-116v0,-61,-58,-118,-118,-116r0,-32r62,-360r-332,0r0,-200r564,0r-84,472v72,72,108,151,108,236"},"4":{"d":"440,0r0,-368r-360,0r68,-656r200,0r-44,456r136,0r0,-456r200,0r0,1024r-200,0"},"5":{"d":"488,-316v0,-63,-54,-116,-118,-116r-290,0r0,-32r96,-560r440,0r0,200r-288,0r-32,192r74,0v167,-5,318,150,318,316v0,166,-151,316,-318,316v-167,0,-323,-150,-318,-316r200,0v-2,61,58,116,118,116v60,0,118,-55,118,-116"},"6":{"d":"688,-316v3,166,-151,316,-318,316v-167,0,-318,-150,-318,-316v0,-380,226,-598,512,-708r72,208v-115,27,-213,88,-296,184v196,-16,345,140,348,316xm252,-316v0,61,58,116,118,116v60,0,118,-55,118,-116v0,-61,-58,-116,-118,-116v-60,0,-118,55,-118,116"},"7":{"d":"60,-1024r620,0r0,32r-396,992r-224,0r336,-824r-336,0r0,-200"},"8":{"d":"688,-316v0,166,-151,316,-318,316v-167,0,-318,-150,-318,-316v0,-93,31,-168,92,-224v-48,-51,-72,-113,-72,-188v0,-156,141,-296,298,-296v157,0,298,140,298,296v0,75,-24,137,-72,188v61,56,92,131,92,224xm252,-316v0,61,58,116,118,116v60,0,118,-55,118,-116v0,-61,-58,-116,-118,-116v-60,0,-118,55,-118,116xm272,-728v0,53,44,96,98,96v54,0,98,-43,98,-96v0,-53,-44,-96,-98,-96v-54,0,-98,43,-98,96"},"9":{"d":"52,-708v-3,-166,151,-316,318,-316v167,0,318,150,318,316v0,380,-226,598,-512,708r-72,-208v115,-27,213,-88,296,-184v-196,16,-345,-140,-348,-316xm488,-708v0,-61,-58,-116,-118,-116v-60,0,-118,55,-118,116v0,61,58,116,118,116v60,0,118,-55,118,-116"},"=":{"d":"60,-548r0,-200r620,0r0,200r-620,0xm60,-388r620,0r0,200r-620,0r0,-200"},"?":{"d":"185,-1024v146,0,295,101,295,260v0,83,-25,163,-88,228v-42,44,-29,119,-32,196r-200,0v0,-117,-10,-204,60,-268v42,-38,60,-80,60,-120v0,-124,-118,-92,-224,-96r3,-200r126,0xm380,-120v0,62,-58,120,-120,120v-62,0,-120,-58,-120,-120v0,-62,58,-120,120,-120v62,0,120,58,120,120","w":520},"A":{"d":"52,0r450,-1072r32,0r450,1072r-232,0r-68,-160r-332,0r-68,160r-232,0xm518,-536r-78,176r156,0","w":1036},"a":{"d":"52,0r450,-1072r32,0r450,1072r-232,0r-68,-160r-332,0r-68,160r-232,0xm518,-536r-78,176r156,0","w":1036},"B":{"d":"680,-282v0,157,-96,282,-252,282r-328,0r0,-1024r272,0v147,-10,260,120,260,244v0,114,-3,169,-64,224v82,43,112,133,112,274xm480,-308v0,-63,-29,-124,-104,-124r-76,0r0,232r80,0v66,2,100,-47,100,-108xm432,-728v0,-52,-31,-97,-84,-96r-48,0r0,192v82,11,133,-24,132,-96","w":728},"b":{"d":"680,-282v0,157,-96,282,-252,282r-328,0r0,-1024r272,0v147,-10,260,120,260,244v0,114,-3,169,-64,224v82,43,112,133,112,274xm480,-308v0,-63,-29,-124,-104,-124r-76,0r0,232r80,0v66,2,100,-47,100,-108xm432,-728v0,-52,-31,-97,-84,-96r-48,0r0,192v82,11,133,-24,132,-96","w":728},"C":{"d":"60,-512v0,-272,240,-512,512,-512v107,0,203,29,288,88r-124,156v-43,-29,-97,-44,-164,-44v-166,0,-312,146,-312,312v0,166,146,312,312,312v67,0,121,-15,164,-44r124,156v-85,59,-181,88,-288,88v-272,0,-512,-240,-512,-512","w":920},"c":{"d":"60,-512v0,-272,240,-512,512,-512v107,0,203,29,288,88r-124,156v-43,-29,-97,-44,-164,-44v-166,0,-312,146,-312,312v0,166,146,312,312,312v67,0,121,-15,164,-44r124,156v-85,59,-181,88,-288,88v-272,0,-512,-240,-512,-512","w":920},"D":{"d":"880,-536v0,272,-196,536,-464,536r-316,0r0,-1024r296,0v271,-4,484,210,484,488xm680,-524v0,-154,-135,-303,-280,-300r-100,0r0,624r108,0v132,3,272,-178,272,-324","w":940},"d":{"d":"880,-536v0,272,-196,536,-464,536r-316,0r0,-1024r296,0v271,-4,484,210,484,488xm680,-524v0,-154,-135,-303,-280,-300r-100,0r0,624r108,0v132,3,272,-178,272,-324","w":940},"E":{"d":"100,0r0,-1024r528,0r0,200r-328,0r0,256r304,0r0,200r-304,0r0,168r328,0r0,200r-528,0","w":728},"e":{"d":"100,0r0,-1024r528,0r0,200r-328,0r0,256r304,0r0,200r-304,0r0,168r328,0r0,200r-528,0","w":728},"F":{"d":"100,0r0,-1024r528,0r0,200r-328,0r0,256r292,0r0,200r-292,0r0,368r-200,0","w":696},"f":{"d":"100,0r0,-1024r528,0r0,200r-328,0r0,256r292,0r0,200r-292,0r0,368r-200,0","w":696},"G":{"d":"260,-512v0,166,146,312,312,312v120,0,218,-80,228,-172r-184,0r0,-200r404,0v17,320,-143,572,-445,572v-275,0,-515,-239,-515,-512v0,-272,240,-512,512,-512v140,0,260,50,361,151r-141,141v-61,-61,-135,-92,-220,-92v-166,0,-312,146,-312,312","w":1144},"g":{"d":"260,-512v0,166,146,312,312,312v120,0,218,-80,228,-172r-184,0r0,-200r404,0v17,320,-143,572,-445,572v-275,0,-515,-239,-515,-512v0,-272,240,-512,512,-512v140,0,260,50,361,151r-141,141v-61,-61,-135,-92,-220,-92v-166,0,-312,146,-312,312","w":1144},"H":{"d":"100,0r0,-1024r200,0r0,456r344,0r0,-456r200,0r0,1024r-200,0r0,-368r-344,0r0,368r-200,0","w":944},"h":{"d":"100,0r0,-1024r200,0r0,456r344,0r0,-456r200,0r0,1024r-200,0r0,-368r-344,0r0,368r-200,0","w":944},"I":{"d":"100,0r0,-1024r200,0r0,1024r-200,0","w":400},"i":{"d":"100,0r0,-1024r200,0r0,1024r-200,0","w":400},"J":{"d":"628,-372v6,196,-175,372,-370,372v-76,0,-142,-19,-198,-56r92,-168v32,16,67,24,106,24v90,0,170,-84,170,-172r0,-652r200,0r0,652","w":728},"j":{"d":"628,-372v6,196,-175,372,-370,372v-76,0,-142,-19,-198,-56r92,-168v32,16,67,24,106,24v90,0,170,-84,170,-172r0,-652r200,0r0,652","w":728},"K":{"d":"100,0r0,-1024r200,0r0,308r264,-308r244,0r-320,380r384,644r-264,0r-260,-480r-48,52r0,428r-200,0","w":912},"k":{"d":"100,0r0,-1024r200,0r0,308r264,-308r244,0r-320,380r384,644r-264,0r-260,-480r-48,52r0,428r-200,0","w":912},"L":{"d":"100,0r0,-1024r200,0r0,824r376,0r0,200r-576,0","w":736},"l":{"d":"100,0r0,-1024r200,0r0,824r376,0r0,200r-576,0","w":736},"M":{"d":"100,0r0,-1024r40,0r372,524r372,-524r40,0r0,1024r-200,0r0,-452r-196,260r-32,0r-196,-260r0,452r-200,0","w":1024},"m":{"d":"100,0r0,-1024r40,0r372,524r372,-524r40,0r0,1024r-200,0r0,-452r-196,260r-32,0r-196,-260r0,452r-200,0","w":1024},"N":{"d":"100,0r0,-1024r40,0r504,544r0,-544r200,0r0,1024r-60,0r-484,-544r0,544r-200,0","w":944},"n":{"d":"100,0r0,-1024r40,0r504,544r0,-544r200,0r0,1024r-60,0r-484,-544r0,544r-200,0","w":944},"O":{"d":"572,-1024v272,0,512,240,512,512v0,272,-240,512,-512,512v-272,0,-512,-240,-512,-512v0,-272,240,-512,512,-512xm572,-200v166,0,312,-146,312,-312v0,-166,-146,-312,-312,-312v-166,0,-312,146,-312,312v0,166,146,312,312,312","w":1144},"o":{"d":"572,-1024v272,0,512,240,512,512v0,272,-240,512,-512,512v-272,0,-512,-240,-512,-512v0,-272,240,-512,512,-512xm572,-200v166,0,312,-146,312,-312v0,-166,-146,-312,-312,-312v-166,0,-312,146,-312,312v0,166,146,312,312,312","w":1144},"P":{"d":"688,-682v0,178,-142,313,-300,314r-88,0r0,368r-200,0r0,-1024r288,0v170,-2,300,162,300,342xm488,-702v0,-62,-44,-122,-104,-122r-84,0r0,256r76,0v63,3,112,-71,112,-134","w":748},"p":{"d":"688,-682v0,178,-142,313,-300,314r-88,0r0,368r-200,0r0,-1024r288,0v170,-2,300,162,300,342xm488,-702v0,-62,-44,-122,-104,-122r-84,0r0,256r76,0v63,3,112,-71,112,-134","w":748},"Q":{"d":"572,-1024v272,0,520,240,512,512v-3,123,-33,220,-92,292r80,68r-140,152r-80,-68v-77,45,-171,68,-280,68v-272,0,-512,-240,-512,-512v0,-272,240,-512,512,-512xm260,-512v0,166,146,312,312,312v43,0,83,-4,120,-12r-72,-64r132,-148r92,80v27,-56,40,-112,40,-168v0,-166,-146,-312,-312,-312v-166,0,-312,146,-312,312","w":1144},"q":{"d":"572,-1024v272,0,520,240,512,512v-3,123,-33,220,-92,292r80,68r-140,152r-80,-68v-77,45,-171,68,-280,68v-272,0,-512,-240,-512,-512v0,-272,240,-512,512,-512xm260,-512v0,166,146,312,312,312v43,0,83,-4,120,-12r-72,-64r132,-148r92,80v27,-56,40,-112,40,-168v0,-166,-146,-312,-312,-312v-166,0,-312,146,-312,312","w":1144},"R":{"d":"388,-1024v167,0,300,137,300,320v0,99,-21,173,-64,224v-43,51,-77,80,-104,88r248,392r-224,0r-216,-368r-28,0r0,368r-200,0r0,-1024r288,0xm488,-696v0,-89,-28,-127,-116,-128r-72,0r0,256r72,0v84,-1,116,-41,116,-128","w":768},"r":{"d":"388,-1024v167,0,300,137,300,320v0,99,-21,173,-64,224v-43,51,-77,80,-104,88r248,392r-224,0r-216,-368r-28,0r0,368r-200,0r0,-1024r288,0xm488,-696v0,-89,-28,-127,-116,-128r-72,0r0,256r72,0v84,-1,116,-41,116,-128","w":768},"S":{"d":"394,-824v-29,-1,-66,30,-66,62v0,17,19,45,58,84v39,39,97,91,174,158v77,67,115,146,115,237v0,177,-132,283,-301,283v-150,0,-269,-114,-314,-196r152,-116v36,42,91,112,160,112v56,0,105,-25,104,-82v0,-28,-35,-73,-106,-134v-71,-61,-129,-118,-174,-170v-45,-52,-68,-117,-68,-196v0,-202,240,-296,414,-210v41,21,75,49,102,84r-156,128v-35,-29,-47,-42,-94,-44"},"s":{"d":"394,-824v-29,-1,-66,30,-66,62v0,17,19,45,58,84v39,39,97,91,174,158v77,67,115,146,115,237v0,177,-132,283,-301,283v-150,0,-269,-114,-314,-196r152,-116v36,42,91,112,160,112v56,0,105,-25,104,-82v0,-28,-35,-73,-106,-134v-71,-61,-129,-118,-174,-170v-45,-52,-68,-117,-68,-196v0,-202,240,-296,414,-210v41,21,75,49,102,84r-156,128v-35,-29,-47,-42,-94,-44"},"T":{"d":"306,0r0,-824r-246,0r0,-200r692,0r0,200r-246,0r0,824r-200,0","w":812},"t":{"d":"306,0r0,-824r-246,0r0,-200r692,0r0,200r-246,0r0,824r-200,0","w":812},"U":{"d":"470,0v-195,0,-370,-176,-370,-372r0,-652r200,0r0,652v-2,88,80,172,170,172v90,0,170,-84,170,-172r0,-652r200,0r0,652v6,196,-175,372,-370,372","w":940},"u":{"d":"470,0v-195,0,-370,-176,-370,-372r0,-652r200,0r0,652v-2,88,80,172,170,172v90,0,170,-84,170,-172r0,-652r200,0r0,652v6,196,-175,372,-370,372","w":940},"V":{"d":"60,-1024r228,0r152,448r152,-448r228,0r-348,1024r-64,0","w":880},"v":{"d":"60,-1024r228,0r152,448r152,-448r228,0r-348,1024r-64,0","w":880},"W":{"d":"60,-1024r228,0r152,448r152,-448r32,0r152,448r152,-448r228,0r-348,1024r-64,0r-136,-400r-136,400r-64,0","w":1216,"k":{"A":224}},"w":{"d":"60,-1024r228,0r152,448r152,-448r32,0r152,448r152,-448r228,0r-348,1024r-64,0r-136,-400r-136,400r-64,0","w":1216},"X":{"d":"60,-1024r212,0r198,332r198,-332r212,0r-304,512r304,512r-212,0r-198,-332r-198,332r-212,0r304,-512","w":940},"x":{"d":"60,-1024r212,0r198,332r198,-332r212,0r-304,512r304,512r-212,0r-198,-332r-198,332r-212,0r304,-512","w":940},"Y":{"d":"60,-1024r228,0r170,304r170,-304r228,0r-296,536r0,488r-200,0r0,-488","w":916},"y":{"d":"60,-1024r228,0r170,304r170,-304r228,0r-296,536r0,488r-200,0r0,-488","w":916},"Z":{"d":"100,-1024r740,0r0,32r-408,792r408,0r0,200r-740,0r0,-32r408,-792r-408,0r0,-200","w":940},"z":{"d":"100,-1024r740,0r0,32r-408,792r408,0r0,200r-740,0r0,-32r408,-792r-408,0r0,-200","w":940},"\\":{"d":"700,0r-216,0r-444,-1024r216,0"},"\u00a0":{"w":512}}});
